digraph Tree {
node [shape=box, fontname="helvetica"] ;
edge [fontname="helvetica"] ;
0 [label="alcohol <= 12.78\ngini = 0.655\nsamples = 142\nvalue = [42, 60, 40]"] ;
1 [label="malic_acid <= 4.515\ngini = 0.234\nsamples = 59\nvalue = [0, 51, 8]"] ;
0 -> 1 [labeldistance=2.5, labelangle=45, headlabel="True"] ;
2 [label="alcohol <= 12.49\ngini = 0.188\nsamples = 57\nvalue = [0, 51, 6]"] ;
1 -> 2 ;
3 [label="gini = 0.087\nsamples = 44\nvalue = [0, 42, 2]"] ;
2 -> 3 ;
4 [label="gini = 0.426\nsamples = 13\nvalue = [0, 9, 4]"] ;
2 -> 4 ;
5 [label="gini = 0.0\nsamples = 2\nvalue = [0, 0, 2]"] ;
1 -> 5 ;
6 [label="malic_acid <= 2.235\ngini = 0.584\nsamples = 83\nvalue = [42, 9, 32]"] ;
0 -> 6 [labeldistance=2.5, labelangle=-45, headlabel="False"] ;
7 [label="malic_acid <= 1.3\ngini = 0.373\nsamples = 44\nvalue = [34, 7, 3]"] ;
6 -> 7 ;
8 [label="gini = 0.0\nsamples = 4\nvalue = [0, 4, 0]"] ;
7 -> 8 ;
9 [label="gini = 0.266\nsamples = 40\nvalue = [34, 3, 3]"] ;
7 -> 9 ;
10 [label="alcohol <= 14.185\ngini = 0.402\nsamples = 39\nvalue = [8, 2, 29]"] ;
6 -> 10 ;
11 [label="gini = 0.356\nsamples = 37\nvalue = [6, 2, 29]"] ;
10 -> 11 ;
12 [label="gini = 0.0\nsamples = 2\nvalue = [2, 0, 0]"] ;
10 -> 12 ;
}